digraph Tree {
node [shape=box] ;
0 [label="X[22] <= 113.15\ngini = 0.468\nsamples = 456\nvalue = [286, 170]"] ;
1 [label="X[27] <= 0.149\ngini = 0.156\nsamples = 304\nvalue = [278, 26]"] ;
0 -> 1 [labeldistance=2.5, labelangle=45, headlabel="True"] ;
2 [label="X[13] <= 36.465\ngini = 0.074\nsamples = 284\nvalue = [273, 11]"] ;
1 -> 2 ;
3 [label="X[27] <= 0.136\ngini = 0.036\nsamples = 270\nvalue = [265, 5]"] ;
2 -> 3 ;
4 [label="X[21] <= 33.27\ngini = 0.008\nsamples = 257\nvalue = [256, 1]"] ;
3 -> 4 ;
5 [label="gini = 0.0\nsamples = 238\nvalue = [238, 0]"] ;
4 -> 5 ;
6 [label="X[21] <= 33.56\ngini = 0.1\nsamples = 19\nvalue = [18, 1]"] ;
4 -> 6 ;
7 [label="gini = 0.0\nsamples = 1\nvalue = [0, 1]"] ;
6 -> 7 ;
8 [label="gini = 0.0\nsamples = 18\nvalue = [18, 0]"] ;
6 -> 8 ;
9 [label="X[1] <= 20.785\ngini = 0.426\nsamples = 13\nvalue = [9, 4]"] ;
3 -> 9 ;
10 [label="X[27] <= 0.139\ngini = 0.18\nsamples = 10\nvalue = [9, 1]"] ;
9 -> 10 ;
11 [label="gini = 0.0\nsamples = 1\nvalue = [0, 1]"] ;
10 -> 11 ;
12 [label="gini = 0.0\nsamples = 9\nvalue = [9, 0]"] ;
10 -> 12 ;
13 [label="gini = 0.0\nsamples = 3\nvalue = [0, 3]"] ;
9 -> 13 ;
14 [label="X[19] <= 0.004\ngini = 0.49\nsamples = 14\nvalue = [8, 6]"] ;
2 -> 14 ;
15 [label="X[11] <= 1.067\ngini = 0.375\nsamples = 8\nvalue = [2, 6]"] ;
14 -> 15 ;
16 [label="gini = 0.0\nsamples = 2\nvalue = [2, 0]"] ;
15 -> 16 ;
17 [label="gini = 0.0\nsamples = 6\nvalue = [0, 6]"] ;
15 -> 17 ;
18 [label="gini = 0.0\nsamples = 6\nvalue = [6, 0]"] ;
14 -> 18 ;
19 [label="X[21] <= 23.74\ngini = 0.375\nsamples = 20\nvalue = [5, 15]"] ;
1 -> 19 ;
20 [label="X[10] <= 0.377\ngini = 0.32\nsamples = 5\nvalue = [4, 1]"] ;
19 -> 20 ;
21 [label="gini = 0.0\nsamples = 4\nvalue = [4, 0]"] ;
20 -> 21 ;
22 [label="gini = 0.0\nsamples = 1\nvalue = [0, 1]"] ;
20 -> 22 ;
23 [label="X[5] <= 0.113\ngini = 0.124\nsamples = 15\nvalue = [1, 14]"] ;
19 -> 23 ;
24 [label="gini = 0.0\nsamples = 1\nvalue = [1, 0]"] ;
23 -> 24 ;
25 [label="gini = 0.0\nsamples = 14\nvalue = [0, 14]"] ;
23 -> 25 ;
26 [label="X[6] <= 0.072\ngini = 0.1\nsamples = 152\nvalue = [8, 144]"] ;
0 -> 26 [labeldistance=2.5, labelangle=-45, headlabel="False"] ;
27 [label="X[1] <= 19.83\ngini = 0.492\nsamples = 16\nvalue = [7, 9]"] ;
26 -> 27 ;
28 [label="X[17] <= 0.006\ngini = 0.219\nsamples = 8\nvalue = [7, 1]"] ;
27 -> 28 ;
29 [label="gini = 0.0\nsamples = 1\nvalue = [0, 1]"] ;
28 -> 29 ;
30 [label="gini = 0.0\nsamples = 7\nvalue = [7, 0]"] ;
28 -> 30 ;
31 [label="gini = 0.0\nsamples = 8\nvalue = [0, 8]"] ;
27 -> 31 ;
32 [label="X[7] <= 0.04\ngini = 0.015\nsamples = 136\nvalue = [1, 135]"] ;
26 -> 32 ;
33 [label="gini = 0.0\nsamples = 1\nvalue = [1, 0]"] ;
32 -> 33 ;
34 [label="gini = 0.0\nsamples = 135\nvalue = [0, 135]"] ;
32 -> 34 ;
}
